#pragma once
#include "common.hpp"
//#include "table_values.hpp"


struct Config_LayerNorm_1
{
	static const unsigned NUM_CHANNEL=768;
//	static const unsigned NUM_CHANNEL=16;
	static const unsigned LOG_NUM_CHANNEL=10;
	static const unsigned BUS_WIDTH=512;
	static const unsigned DATA_WIDTH=32;
	static const unsigned IM_DATA_WIDTH=32;
	static const unsigned VEC_WIDTH=BUS_WIDTH/DATA_WIDTH;
	static const unsigned UNROLL_FACTOR = 16;
	static const unsigned shift = 1;
};


ap_int<Config_LayerNorm_1::DATA_WIDTH> bias[Config_LayerNorm_1::NUM_CHANNEL] = { -17093736, 896859, -1081149, 1322000, 9731648, -851367, 10401190, 5152764, 12333235, -5176014, -1073808, 2393208, 4457520, -1914093, -2808096, 217348, -699880, 7525573, -4816738, -66244, 5425591, -1179654, 2390545, 705035, -1665403, 3194435, -8320828, -4486000, -5236003, 5984069, 8419900, 1617088, -4727864, -6638594, 2874136, -2107768, 459725, -1490456, -19585998, 1123460, -1876274, 1316160, -3613469, 8863457, 1141082, -5693115, 1583222, -2768155, -3548605, 3164231, -1237656, 6710379, -9603462, 3758660, -1465155, -7724027, -531767, 1863649, -1420710, 854368, -4759635, 32633112, 1312504, -1259048, -87294, 1794051, 1408121, -1758943, 5138152, -4955627, 4750082, 4681109, -6007779, -1972665, -7700122, 4366047, -19049, 45695972, -805023, -4573024, -477425, 5097550, 26513934, 980624, -1748059, 5869455, 2592240, -4749656, 2822868, -2597822, -5732758, 1041125, -3827859, -1602580, -4205558, -4119037, 1648968, 9014019, 450579, -2144338, -643387, 700545, -1233226, -2394740, 4930274, 2624663, -392481, 4972006, -4263709, -2152977, -31511520, -2643139, -1080882, -7660250, 10992580, 1903753, -1985099, 53575, 6262377, -5240964, -2370413, -1340988, -83893, -242915, -12754891, -495805, -1402821, -1484348, 1554354, -10552075, -6257547, -1181326, 5968225, -946454, -4692841, 2510665, 119533, 3548427, -3737482, -8650932, 1514805, -2512270, 846482, 5276620, 1164162, -6550139, 2485579, 3019442, 2654440, -1075755, -4551170, -2639530, -4483302, 464701, -3220495, -4085836, 2759761, -5469162, 13862, -3589999, 4651517, -1028033, -436324, -3415947, -7428882, -2491949, 1759502, -1143269, 2983727, 3632976, -6601463, 323484, -504274, -3492806, -2014421, 4174755, 1975054, -5137736, -7436014, 2836827, 3156498, 4692555, -5320957, -6298196, -823059, 2599171, 1713696, 2067897, 4310125, 6231351, -5158788, -4669813, 1346279, 509080, -4236111, 2049620, -2616454, -9486512, 445550, -5343633, 10671006, -5711153, -231340, 9801587, 3236912, 839720, 1007980, 1927411, 12028189, -2831014, 12247942, 11457353, -7292440, -6235265, -2312333, 4566950, 4501078, 42196332, -6664176, -2352307, -6407629, -4705885, 4322822, -6218501, 2585067, 1201313, 3405686, -9793295, -926540, -7229338, -2863032, 3549786, 1207146, 53738, 11554016, 2636741, 3444600, -3179552, 10731650, 1649154, -5311743, 4743732, -1545080, -157073, 3310197, 1514519, -5314226, -2335473, 2623125, -1046261, -3882253, 1728314, -1046933, -5719463, -291776, -613459, -2693189, -6338495, 562150, 5588539, 564801, -578624, -3123962, 934693, -6425351, -1613504, 6306020, -2943310, -6386329, -2820703, -5028467, 15123183, -4814616, -1562000, 3571103, -1471904, -7641589, 8637131, 3129030, 328192, -4199224, -1477913, 5503208, -5645204, -11625054, -53896, -5599413, -5231407, -3333578, -873534, -10255919, -3607296, -2659428, 170199, -832482, -2771236, 4748558, -787939, 6702012, -1894688, 4517497, -4680469, -739705, 1715582, -7364034, 150, 2583766, -5849319, -1106422, -327456, -1151839, 868163, 10633579, 1133600, 2199488, -5954232, 2663967, 1815662, 355026, 2297899, -1373148, 10098434, 3860890, -4505982, 393003, 3057471, 3452054, -1902224, -1214562, 1239331, -15064796, 1431442, 8148658, -861676, 12600909, -798295, 2948777, 281028, 222450, -1030152, -2883289, -7339835, 7964893, -6053493, -8739486, 3040495, -1810161, -1592198, -7237432, 3155039, 3815737, 4398535, -6722357, 5134253, 4076498, -1309904, -3021642, 2408214, -7600485, -2126681, 5261820, -1233300, -19637242, 1259067, -1358121, 3053964, 1658006, 253663, 12333692, 699253, -1069222, -2890703, 592992, -976723, -3138516, 4015306, 7527105, -5081180, 3525831, -4523537, 475755, 937953, -2992774, 1145094, -5583665, 2846388, -7528303, 1922868, -1741323, 1762638, 2964842, 1077227, 8300648, 2865981, 4246891, 2212207, 1277811, -19623394, 3682992, 2731959, 2646430, 4998402, -3790305, -3677627, 7438514, -1253790, -1328254, -5499259, -7437020, -2525677, 5549133, 1993240, 5202068, -4871819, 3169067, -680099, -2331608, -3069127, -1520348, 3058615, -1529313, 6847630, 7290408, 2017040, 426954, 744883, -3660369, 887741, 5789533, 12498433, 2068473, -3158633, -1589836, -2407474, -2230593, -2558894, -12665987, -867412, 6709189, -529912, -3048871, 329277, -2918306, 1674565, 7991617, 1070091, 945793, 13393583, -4467284, -114497, 3574567, -3228228, 220440, 316435456, -4160403, 32808670, -6285839, 5781721, 4789072, 3515798, -4064893, -1067138, 4895399, 4337479, 2306482, -2468025, -4467766, -11525071, -930921, -7264387, 306187, 2392439, -872409, -1704251, -4595914, -3915800, 9684526, 5278447, 12352021, 3007717, -5569323, -3185558, -9883611, -3135923, -3141365, -4606976, 4077182, -3775892, -814092, 5864933, -15466329, 29645, 2992734, -2903097, -22569658, 11814611, 16634108, 2330495, -8641975, 1166667, 3866265, -5369158, -3022957, -2672128, -2716205, -3533276, -1559904, 8402892, 1403039, 10100594, -4518202, 4133857, 3011171, 1404857, 7477928, 98348, 2337467, 3411680, 4512754, 2948649, 3674950, -5787918, 1088782, 475808, 2029684, -7406011, 3879678, -2653859, -6969909, 2509890, 1208140, 9068775, -914420, -6012128, 254932, -9729442, -5418929, 5248257, -4390333, -9236020, 888209, 6065240, 466695, 10156608, 6660575, 1642196, 2788965, -209228, -1349962, 1991081, -2315118, -16538711, 4484337, -1722742, -1963840, 2084377, -2416370, -1080030, -2824936, -53415, -7678232, 30276178, 8246438, -4867470, 3766913, -3285896, -164311, -3973459, -8512713, -5611883, -63040908, 2816927, 6220519, -3073040, -3978317, -2090138, -1089201, -3353924, 1312832, 1424775, -3071532, -13788682, -2434443, 468531, -149924, -1296360, 157505, -22517972, -32797740, -7726289, -5384342, 159648, -432775, -3277721, -1465185, -12663897, -4116760, -4190422, 2063375, 1904731, 7824934, 405891, -7033617, 7139610, 3459816, -2740904, 700065, -5018862, -795910, -27243118, 3759764, 1909398, -6081092, 1910655, 1150457, 3819175, 2483903, 585793, 1761284, -1307546, 2341467, 5294940, -8756977, 114389, -8790540, 4070397, 5749299, -2690923, 815181, -2543330, -6808462, -8010264, -11976408, 7481535, -341355, -1551912, -4829383, 4624431, -9035120, 2813800, 2551463, 1538199, -11167848, 2845420, 819539, 2576382, -1435347, 1029741, 2028511, 9048754, 4489997, -1255707, -3789470, 2139263, -1485450, 3193421, 4640604, 3809060, -3658841, 438010, 4223271, -13588999, 7804009, 870386, -17064030, -1667171, 3456406, 7957810, 778103, -8883482, -2091557, -856984, 2918732, -3831826, 2609556, -416150, 2841769, -2402974, -380393, 9687031, 6179170, -1392130, 1890664, -2810037, 5743182, 1152343, -4039699, -2995896, -1830963, 1488759, -9018905, -7125675, -5878026, -362372, 1933790, -1618756, -2814047, -7449675, -2847728, -70379, -3707467, 1666770, -2050414, -1543754, 1451986, -1201678, 5686586, -3625050, -534877, 1035021, 8596265, -1934701, 5483702, 4908811, 973225, 3600493, -3130959, -2427774, 3331909, -8402979, -5330928, -8609046, 5208585, 4069608, 2217718, 3847437, -4301750, 3073639, 623154, 1105744, -857807, 20430960, -3171274, 2719554, 282262, 949355, -2512342, 2041542, -2108622, -1082931, -1233846, -606461, -5095756, 3637697, 1011740, -1834425, -3714198, -4694609, -11453581, 23745444, 1412144, -4523959, -9722745, -2241790, 5309445, 3997526, -1320019, -3988548, -797275, -6317931, -9858253, -1885623, 1262603, -940311, 3753601, -2662724, -3489401, -5005606 };
//ap_uint<16> sqrt_table[2][65536] = { SQRT_TABLE };
//ap_int<Config_LayerNorm_1::DATA_WIDTH> bias[Config_LayerNorm_1::NUM_CHANNEL] =  { -17093736, 896859, -1081149, 1322000, 9731648, -851367, 10401190, 5152764, 12333235, -5176014, -1073808, 2393208, 12333235, -5176014, -1073808, 2393208};
