#pragma once
#include "common.hpp"
//#include "table_values.hpp"


struct Config_LayerNorm_1
{
	static const unsigned NUM_CHANNEL=768;
	static const unsigned LOG_NUM_CHANNEL=10;
	static const unsigned BUS_WIDTH=512;
	static const unsigned DATA_WIDTH=32;
	static const unsigned IM_DATA_WIDTH=32;
	static const unsigned VEC_WIDTH=BUS_WIDTH/DATA_WIDTH;
	static const unsigned UNROLL_FACTOR = 16;
	static const unsigned shift = 1;
};


//ap_int<Config_LayerNorm_1::DATA_WIDTH> bias[Config_LayerNorm_1::NUM_CHANNEL] = { -17093736, 896859, -1081149, 1322000, 9731648, -851367, 10401190, 5152764, 12333235, -5176014, -1073808, 2393208, 4457520, -1914093, -2808096, 217348, -699880, 7525573, -4816738, -66244, 5425591, -1179654, 2390545, 705035, -1665403, 3194435, -8320828, -4486000, -5236003, 5984069, 8419900, 1617088, -4727864, -6638594, 2874136, -2107768, 459725, -1490456, -19585998, 1123460, -1876274, 1316160, -3613469, 8863457, 1141082, -5693115, 1583222, -2768155, -3548605, 3164231, -1237656, 6710379, -9603462, 3758660, -1465155, -7724027, -531767, 1863649, -1420710, 854368, -4759635, 32633112, 1312504, -1259048, -87294, 1794051, 1408121, -1758943, 5138152, -4955627, 4750082, 4681109, -6007779, -1972665, -7700122, 4366047, -19049, 45695972, -805023, -4573024, -477425, 5097550, 26513934, 980624, -1748059, 5869455, 2592240, -4749656, 2822868, -2597822, -5732758, 1041125, -3827859, -1602580, -4205558, -4119037, 1648968, 9014019, 450579, -2144338, -643387, 700545, -1233226, -2394740, 4930274, 2624663, -392481, 4972006, -4263709, -2152977, -31511520, -2643139, -1080882, -7660250, 10992580, 1903753, -1985099, 53575, 6262377, -5240964, -2370413, -1340988, -83893, -242915, -12754891, -495805, -1402821, -1484348, 1554354, -10552075, -6257547, -1181326, 5968225, -946454, -4692841, 2510665, 119533, 3548427, -3737482, -8650932, 1514805, -2512270, 846482, 5276620, 1164162, -6550139, 2485579, 3019442, 2654440, -1075755, -4551170, -2639530, -4483302, 464701, -3220495, -4085836, 2759761, -5469162, 13862, -3589999, 4651517, -1028033, -436324, -3415947, -7428882, -2491949, 1759502, -1143269, 2983727, 3632976, -6601463, 323484, -504274, -3492806, -2014421, 4174755, 1975054, -5137736, -7436014, 2836827, 3156498, 4692555, -5320957, -6298196, -823059, 2599171, 1713696, 2067897, 4310125, 6231351, -5158788, -4669813, 1346279, 509080, -4236111, 2049620, -2616454, -9486512, 445550, -5343633, 10671006, -5711153, -231340, 9801587, 3236912, 839720, 1007980, 1927411, 12028189, -2831014, 12247942, 11457353, -7292440, -6235265, -2312333, 4566950, 4501078, 42196332, -6664176, -2352307, -6407629, -4705885, 4322822, -6218501, 2585067, 1201313, 3405686, -9793295, -926540, -7229338, -2863032, 3549786, 1207146, 53738, 11554016, 2636741, 3444600, -3179552, 10731650, 1649154, -5311743, 4743732, -1545080, -157073, 3310197, 1514519, -5314226, -2335473, 2623125, -1046261, -3882253, 1728314, -1046933, -5719463, -291776, -613459, -2693189, -6338495, 562150, 5588539, 564801, -578624, -3123962, 934693, -6425351, -1613504, 6306020, -2943310, -6386329, -2820703, -5028467, 15123183, -4814616, -1562000, 3571103, -1471904, -7641589, 8637131, 3129030, 328192, -4199224, -1477913, 5503208, -5645204, -11625054, -53896, -5599413, -5231407, -3333578, -873534, -10255919, -3607296, -2659428, 170199, -832482, -2771236, 4748558, -787939, 6702012, -1894688, 4517497, -4680469, -739705, 1715582, -7364034, 150, 2583766, -5849319, -1106422, -327456, -1151839, 868163, 10633579, 1133600, 2199488, -5954232, 2663967, 1815662, 355026, 2297899, -1373148, 10098434, 3860890, -4505982, 393003, 3057471, 3452054, -1902224, -1214562, 1239331, -15064796, 1431442, 8148658, -861676, 12600909, -798295, 2948777, 281028, 222450, -1030152, -2883289, -7339835, 7964893, -6053493, -8739486, 3040495, -1810161, -1592198, -7237432, 3155039, 3815737, 4398535, -6722357, 5134253, 4076498, -1309904, -3021642, 2408214, -7600485, -2126681, 5261820, -1233300, -19637242, 1259067, -1358121, 3053964, 1658006, 253663, 12333692, 699253, -1069222, -2890703, 592992, -976723, -3138516, 4015306, 7527105, -5081180, 3525831, -4523537, 475755, 937953, -2992774, 1145094, -5583665, 2846388, -7528303, 1922868, -1741323, 1762638, 2964842, 1077227, 8300648, 2865981, 4246891, 2212207, 1277811, -19623394, 3682992, 2731959, 2646430, 4998402, -3790305, -3677627, 7438514, -1253790, -1328254, -5499259, -7437020, -2525677, 5549133, 1993240, 5202068, -4871819, 3169067, -680099, -2331608, -3069127, -1520348, 3058615, -1529313, 6847630, 7290408, 2017040, 426954, 744883, -3660369, 887741, 5789533, 12498433, 2068473, -3158633, -1589836, -2407474, -2230593, -2558894, -12665987, -867412, 6709189, -529912, -3048871, 329277, -2918306, 1674565, 7991617, 1070091, 945793, 13393583, -4467284, -114497, 3574567, -3228228, 220440, 316435456, -4160403, 32808670, -6285839, 5781721, 4789072, 3515798, -4064893, -1067138, 4895399, 4337479, 2306482, -2468025, -4467766, -11525071, -930921, -7264387, 306187, 2392439, -872409, -1704251, -4595914, -3915800, 9684526, 5278447, 12352021, 3007717, -5569323, -3185558, -9883611, -3135923, -3141365, -4606976, 4077182, -3775892, -814092, 5864933, -15466329, 29645, 2992734, -2903097, -22569658, 11814611, 16634108, 2330495, -8641975, 1166667, 3866265, -5369158, -3022957, -2672128, -2716205, -3533276, -1559904, 8402892, 1403039, 10100594, -4518202, 4133857, 3011171, 1404857, 7477928, 98348, 2337467, 3411680, 4512754, 2948649, 3674950, -5787918, 1088782, 475808, 2029684, -7406011, 3879678, -2653859, -6969909, 2509890, 1208140, 9068775, -914420, -6012128, 254932, -9729442, -5418929, 5248257, -4390333, -9236020, 888209, 6065240, 466695, 10156608, 6660575, 1642196, 2788965, -209228, -1349962, 1991081, -2315118, -16538711, 4484337, -1722742, -1963840, 2084377, -2416370, -1080030, -2824936, -53415, -7678232, 30276178, 8246438, -4867470, 3766913, -3285896, -164311, -3973459, -8512713, -5611883, -63040908, 2816927, 6220519, -3073040, -3978317, -2090138, -1089201, -3353924, 1312832, 1424775, -3071532, -13788682, -2434443, 468531, -149924, -1296360, 157505, -22517972, -32797740, -7726289, -5384342, 159648, -432775, -3277721, -1465185, -12663897, -4116760, -4190422, 2063375, 1904731, 7824934, 405891, -7033617, 7139610, 3459816, -2740904, 700065, -5018862, -795910, -27243118, 3759764, 1909398, -6081092, 1910655, 1150457, 3819175, 2483903, 585793, 1761284, -1307546, 2341467, 5294940, -8756977, 114389, -8790540, 4070397, 5749299, -2690923, 815181, -2543330, -6808462, -8010264, -11976408, 7481535, -341355, -1551912, -4829383, 4624431, -9035120, 2813800, 2551463, 1538199, -11167848, 2845420, 819539, 2576382, -1435347, 1029741, 2028511, 9048754, 4489997, -1255707, -3789470, 2139263, -1485450, 3193421, 4640604, 3809060, -3658841, 438010, 4223271, -13588999, 7804009, 870386, -17064030, -1667171, 3456406, 7957810, 778103, -8883482, -2091557, -856984, 2918732, -3831826, 2609556, -416150, 2841769, -2402974, -380393, 9687031, 6179170, -1392130, 1890664, -2810037, 5743182, 1152343, -4039699, -2995896, -1830963, 1488759, -9018905, -7125675, -5878026, -362372, 1933790, -1618756, -2814047, -7449675, -2847728, -70379, -3707467, 1666770, -2050414, -1543754, 1451986, -1201678, 5686586, -3625050, -534877, 1035021, 8596265, -1934701, 5483702, 4908811, 973225, 3600493, -3130959, -2427774, 3331909, -8402979, -5330928, -8609046, 5208585, 4069608, 2217718, 3847437, -4301750, 3073639, 623154, 1105744, -857807, 20430960, -3171274, 2719554, 282262, 949355, -2512342, 2041542, -2108622, -1082931, -1233846, -606461, -5095756, 3637697, 1011740, -1834425, -3714198, -4694609, -11453581, 23745444, 1412144, -4523959, -9722745, -2241790, 5309445, 3997526, -1320019, -3988548, -797275, -6317931, -9858253, -1885623, 1262603, -940311, 3753601, -2662724, -3489401, -5005606 };
ap_int<Config_LayerNorm_1::DATA_WIDTH> bias[Config_LayerNorm_1::NUM_CHANNEL] = {-17102154, 884654, -1016656, 1304671, 9684510, -837492, 10495468, 5162578, 12282513, -5152723, -1078445, 2387717, 4501228, -1871548, -2811509, 266591, -697968, 7554468, -4870390, -36594, 5423024, -1119188, 2413377, 624549, -1675602, 3265331, -8410503, -4486520, -5229625, 5986575, 8455686, 1548645, -4700701, -6698481, 2872312, -2041583, 512463, -1507585, -19582380, 1180206, -1881885, 1278028, -3604165, 8876257, 1086335, -5703421, 1623203, -2750772, -3570626, 3212181, -1261800, 6616488, -9575210, 3789292, -1504090, -7704820, -542892, 1877448, -1410796, 846428, -4685574, 32651710, 1316365, -1252490, -53529, 1812455, 1408799, -1743017, 5092941, -4878279, 4663694, 4700304, -6051292, -1948575, -7648824, 4348675, -11327, 46146692, -836336, -4621044, -495709, 5060295, 26445970, 990499, -1749454, 5817502, 2614300, -4723105, 2778567, -2594663, -5729104, 1129331, -3858380, -1596897, -4210856, -4139534, 1593409, 8996555, 450656, -2124285, -639602, 754169, -1268388, -2344894, 5017749, 2627670, -370172, 4973195, -4243398, -2169903, -31585244, -2582245, -1135157, -7686786, 11070014, 1886159, -1977127, -43499, 6188764, -5225778, -2314938, -1328277, -132389, -257590, -12757892, -464050, -1390852, -1484929, 1653887, -10551501, -6235376, -1146701, 5957781, -869172, -4657592, 2488308, 160175, 3615759, -3705493, -8655784, 1531803, -2532229, 849424, 5356533, 1081693, -6524488, 2418617, 3026134, 2641231, -1067382, -4589485, -2710705, -4405525, 375051, -3185904, -4084131, 2735859, -5489909, 58565, -3620358, 4647484, -1018562, -394241, -3409148, -7420812, -2534436, 1753776, -1063863, 3015572, 3584332, -6607576, 343939, -388476, -3460534, -2070380, 4251313, 2004739, -5118573, -7456432, 2937316, 3181571, 4666901, -5311750, -6316875, -809619, 2591887, 1772536, 2058746, 4373492, 6169803, -5181172, -4756803, 1331664, 417190, -4246352, 2019998, -2671344, -9357922, 451108, -5333411, 10570696, -5674421, -280665, 9731324, 3198374, 856130, 1078456, 1916419, 12025126, -2843817, 12205631, 11470801, -7215763, -6280600, -2274065, 4605704, 4470486, 42117344, -6662611, -2345777, -6360193, -4752400, 4262382, -6246520, 2564543, 1276036, 3396609, -9834185, -936150, -7183259, -2818098, 3552048, 1198257, 48043, 11562043, 2673289, 3499974, -3151353, 10768516, 1604837, -5286808, 4798539, -1541118, -153729, 3254652, 1514965, -5327565, -2366430, 2667842, -1094217, -3859643, 1728386, -983513, -5768727, -303166, -638362, -2696736, -6331721, 469188, 5607435, 606212, -568678, -3075095, 943759, -6373699, -1616598, 6301341, -2947057, -6346179, -2855901, -4982694, 15041504, -4881852, -1516375, 3574494, -1429996, -7656883, 8579623, 3102892, 244712, -4195516, -1464421, 5493639, -5711511, -11575608, -48643, -5605097, -5285908, -3421442, -832827, -10240431, -3665043, -2734649, 196229, -819867, -2747653, 4759122, -817948, 6643298, -1894915, 4545093, -4676301, -684583, 1767300, -7426703, -18173, 2625432, -5831105, -1101955, -408631, -1103105, 939323, 10737271, 1091146, 2223282, -5910504, 2704217, 1806870, 262965, 2221403, -1355004, 10186403, 3836287, -4557704, 451497, 3016514, 3427467, -1920575, -1197615, 1346878, -15078961, 1420005, 8149614, -888062, 12628947, -827354, 2924859, 287764, 217697, -947823, -2777839, -7325176, 7906524, -6158655, -8779174, 3059805, -1699822, -1585242, -7232813, 3170257, 3752468, 4439579, -6749829, 5137554, 4135972, -1315538, -2958787, 2409267, -7651319, -2170631, 5239141, -1193871, -19691250, 1284609, -1347392, 3057988, 1666678, 296962, 12294933, 709435, -1038057, -2923434, 655081, -1016664, -3107429, 4005635, 7504238, -4961191, 3476159, -4545364, 491672, 917138, -2993346, 1164950, -5566559, 2884809, -7474688, 1937844, -1721954, 1800273, 2975786, 1073948, 8346819, 2860649, 4268409, 2248678, 1334482, -19632836, 3708230, 2742088, 2657250, 4965604, -3847875, -3664874, 7442088, -1275832, -1299515, -5505036, -7361437, -2510688, 5471185, 1961094, 5261467, -4833127, 3132942, -718093, -2272627, -3100161, -1517566, 2997482, -1510642, 6816903, 7271519, 2036557, 411630, 758819, -3706734, 863318, 5731429, 12544796, 2078216, -3086777, -1636907, -2413221, -2203391, -2550437, -12681398, -953008, 6613017, -487365, -3045101, 252747, -2920743, 1701222, 7945004, 1082471, 894885, 13298273, -4389849, -147971, 3471185, -3196512, 210884, 315876864, -4152759, 32878710, -6294396, 5683735, 4791015, 3485091, -4011799, -1020196, 4955406, 4302684, 2315731, -2469425, -4488489, -11534175, -937393, -7243066, 265089, 2349233, -872080, -1726430, -4593546, -3905518, 9598194, 5290610, 12404729, 3031893, -5439489, -3158099, -9812115, -3069192, -3174756, -4603301, 4082356, -3761177, -733092, 5827980, -15354951, 53692, 2971764, -2887032, -22468430, 11808277, 16673860, 2356974, -8636919, 1153856, 3879786, -5408119, -3012530, -2712548, -2749008, -3532260, -1613328, 8525631, 1471998, 10127871, -4626750, 4156526, 3059259, 1442670, 7360970, 186416, 2337575, 3456990, 4482208, 2905648, 3637019, -5779214, 1053607, 510865, 2038312, -7345355, 3823557, -2680117, -6973605, 2404081, 1162197, 9059869, -985114, -6053222, 204434, -9713872, -5479744, 5254447, -4459466, -9223082, 921835, 6070956, 501489, 10228227, 6614845, 1654914, 2777888, -208254, -1368323, 2034669, -2296838, -16648615, 4564270, -1680276, -2000734, 2080390, -2376927, -1055640, -2795626, -67860, -7603325, 30277488, 8225496, -4900757, 3740705, -3226691, -251193, -4011982, -8485401, -5634031, -62985100, 2772593, 6205580, -3065297, -3935084, -2102703, -1169194, -3328274, 1329311, 1453109, -3012587, -13766400, -2496880, 464486, -80581, -1353515, 157443, -22471820, -32707484, -7717504, -5374369, 184078, -386444, -3274361, -1534097, -12697654, -4101440, -4188320, 2049750, 2004081, 7821404, 417721, -7028320, 7022236, 3452120, -2754991, 726190, -5063866, -724006, -27273314, 3694345, 1952060, -6091128, 1866524, 1163323, 3843114, 2494467, 576318, 1792443, -1319660, 2389952, 5286776, -8814437, 84864, -8819202, 4063189, 5811859, -2676394, 861966, -2444034, -6765746, -7991217, -12006015, 7515373, -365880, -1575599, -4720084, 4697350, -9070882, 2877262, 2532317, 1521527, -11269429, 2934575, 731278, 2627708, -1460138, 1030431, 2054729, 9018243, 4434317, -1330436, -3772686, 2164943, -1480593, 3215924, 4747981, 3774598, -3641227, 345253, 4196716, -13652169, 7743469, 889536, -17065120, -1731737, 3402858, 7892828, 707062, -8858845, -2147304, -874152, 2884999, -3855602, 2672221, -415762, 2871794, -2483583, -348285, 9680843, 6126359, -1378886, 1858081, -2793742, 5723263, 1140183, -4016391, -2973377, -1820110, 1518879, -9042554, -7100017, -5803485, -322244, 1966782, -1643639, -2797196, -7419550, -2898301, -29590, -3724706, 1591506, -2045101, -1535455, 1359127, -1238963, 5616010, -3569200, -555704, 1029751, 8605729, -1926200, 5506227, 4901854, 966274, 3610143, -3088754, -2421590, 3313626, -8391252, -5254588, -8554678, 5186486, 3973170, 2104387, 3775938, -4247764, 3091111, 592510, 1059525, -834090, 20349620, -3139122, 2735772, 242525, 958412, -2493044, 2046711, -2072679, -1100769, -1292524, -547625, -5069704, 3645280, 1001586, -1930725, -3644612, -4711121, -11435750, 23728558, 1383134, -4540283, -9707325, -2248636, 5394987, 4023596, -1294118, -4004063, -874744, -6295306, -9815661, -1911678, 1266039, -916626, 3757430, -2676698, -3505579, -5027512};
//ap_int<Config_LayerNorm_1::DATA_WIDTH> bias[Config_LayerNorm_1::NUM_CHANNEL] = {19185750, 2440523, 12286556, 11522901, 7091956, 4533597, 7864758, 6261291, 8117302, 5598795, -2009111, 6323336, 10633062, -5086147, 16881622, -8050202, 14657300, 3048201, 11760531, 13324629, 14871251, 18819230, -4086519, 5404204, 873629, 18531288, 1136347, 3740527, 6277131, 7184072, -1687864, 10138100, 5669720, 20830814, -2281846, 11709385, 3090990, 10809851, -873069, 4766855, 11742995, -4959530, -3898429, 460934, 8893848, 9173235, 4919427, -37833136, 7618185, 8523645, 2917608, 14973998, 6923800, 338685, 10355035, 14122199, -736922, 8295566, 5607794, 4875443, 18804020, 34910308, 5935766, 7059938, 2483058, 4546116, 14661310, 7326654, 7209398, -19903366, 6400878, 2362675, 39109772, -24640842, 7900030, -10988790, 4813403, -28145332, 5227828, 26274456, 7265650, -20654080, -27010506, 4765801, 26248554, -11507876, 2771793, 5439175, 16610097, 3425056, 2903744, 4100589, 6868660, -1282764, 14015875, 16152789, 4820699, 7565557, 6241163, 12348120, 16729656, 7818586, 3898753, 8391934, 2167901, 20995812, 7676259, 18135738, 33275698, 6676178, -20145222, 17288300, -2842076, 9914756, 8125068, 5809166, -479255, -4192486, -1828374, 28820114, 8373231, 7725349, 2147844, 359498, 375186, 11922633, 16429108, 11526432, 2231946, 19643556, 47245052, 16334552, -6720861, 6235944, 3413542, 9494402, -1630462, 3572704, 9624495, 7805650, 2713493, 15295544, -1611394, 2365162, 19420064, 45527076, 8561393, 24871992, 2316830, 5844845, 727796, -767948, 10390511, 129008, 10297282, 11008043, 27555368, 3765413, -1885902, 17921252, 5499739, 20504496, 6322372, 4902868, 11949621, 7063498, -21209808, 10249096, 8815966, 4872459, -2341787, -18069574, -1462460, 2490245, 5300851, 6820346, 9984829, 3524501, 8024761, 718472, 5258888, 6579755, 5973368, 2185261, 20498968, 11163770, -2338622, 18784540, 8094678, 2955534, 2780618, 3356402, 32451532, 12205008, 7549181, 1905925, 1645676, 7967380, 6486780, 4981246, 8382979, -1414717, 1653341, 12331072, 25422512, 1394087, -2703824, 5719857, 8131967, 9576758, 6471309, 17054360, 3759041, 5148573, -10480645, -18378666, 1865020, -26441328, 7434054, 1124589, 4510142, 9890819, 7875629, 4655584, 18932606, 8797645, 15113801, 1447606, 4545986, 20760152, 2753577, 6769263, 6774353, 2580601, 4259125, 4367183, 5739663, 10509050, 7479198, 8776008, -20775568, 17133266, 5829071, 5840833, 14716539, 7293535, 4283612, 3991562, 8565691, 4309481, 2811455, 2467292, 641571, 22750266, 5072777, 10200023, 2745543, 40215040, 2807879, 15012165, 3107937, -16896748, 4413233, 4468527, 11605398, -23636436, 600767, 13997087, 10367688, -3655758, 7997826, 2532075, 5004487, 16741517, 7728546, 6709128, 7731494, 5623370, -37122532, 606071, 4066359, 9540450, -6048942, 4792324, 10005712, 7957979, 23589764, 2171950, 1703436, 17188566, 12262104, 14484147, -3822900, 4496627, 16752690, 1863552, 3611252, 9343243, 9897113, 2772487, 1409237, 10838583, -1575554, -3721410, 2498038, 7162812, 703340, 13828115, -3714448, 9037931, 15458891, 19965932, 8921962, 17852266, 9979408, 2154442, 505222, 10045406, 3539536, -32003, 6314274, 47535804, 11839057, 10373982, -1730450, 16879584, 270999, 3900371, 17016162, 1775805, 29779748, 10231057, 6444531, 13028667, 11417289, 3117502, 11885742, 6000806, 31264608, 9205295, 2272838, 16599063, 5590432, -79770, 13086800, 6168664, -2846766, 32734332, 4484836, 4240355, -13184613, 7933066, 8510749, 1708204, 8737669, -78341, 7783212, 22192034, 788340, -16987232, 2091610, 17303444, 9797139, 5118078, 3197105, 9078685, -592153, -1107852, 23205772, 7285422, 17619362, 7803764, 9713363, 829394, 9112417, -1988562, 24666812, 3517838, 20796100, 5673992, 5695850, 15926384, 862099, 503489, 5347237, 8625872, 8079355, 11625376, 2956033, 25491208, 24808002, 24764694, 3628212, 716312, 38104168, 16568384, 6901272, 47608644, -10335394, -890927, 1810220, 8435538, 4274138, 27621830, -1489239, 23588918, 4554503, 16493854, -11942756, -30271756, 10386238, -426738, 6629564, 4835579, -8372059, 80001, 4697482, -12088841, 5668517, 4798030, 4437063, 39154852, 10468617, 9333957, 4728432, 1075413, 7841425, 1571148, 21475170, 6942691, 18656622, 13943390, 10315395, 16274703, 29854040, -1963755, 13761912, 1012845, 3644920, 6505681, 6631273, 13494153, 7671654, 3150365, -1941504, 10413294, 4747472, 1554847, 5257812, 8625650, 7176229, 3423076, 11352068, -38602216, 3539191, 3799122, 9680958, 2188062, 1681976, 3766505, 4074258, 3487231, 8594005, 6218503, 7266353, 15155164, 9646710, 5188550, 5396786, 2189767, 12570228, 4249899, 2321207, 1414410, 1385036, 4108287, -3040558, 1613872, -5237216, 8676305, 4548846, 11519570, 14717305, 8955859, 4794900, 12252311, -6118582, 8400194, 8559665, 5672230, 5874079, 3475354, 5212530, 3778441, 20386062, 3888089, -11987281, 1980271, -19396274, 2365835, 11568960, 4483609, 12988001, 11661946, -1690162, 18467502, 12811963, 4158222, 14210904, -12144294, -4094485, 5080992, 6159261, 5846019, 5475993, 17301114, 3641370, 4170939, 6522323, 26504016, 5850016, 5164946, 6183358, -546170, -878313, 8490717, 11772708, 7729248, 4563418, 2808369, 10196344, 6670423, 7633889, 18651808, 6317951, 57151484, 976819, 1900591, 28127280, 7171311, 7204116, 7459014, 11235965, 5193653, -4741260, 7840750, 8667557, 4522081, 8196727, 7760198, 1463847, 44676636, 1426586, 19554918, 6770282, 5897879, 7260022, 3930664, 247506, 13019927, 11117564, -29366652, 13524855, 4571404, 1082457, 7390054, 9164760, 11122916, 10373602, 4198968, 10634807, 14834716, 8598843, 32838406, 10775569, 13319474, 4206031, 16987478, -2120794, 7444928, -123241, 7811943, 4302971, 2952529, 10549108, 8463206, 5306405, 10036158, 39309468, 4184229, 459741, 24650682, 797738, 10796001, 9237538, 8186428, 22857848, 12210617, -1819799, 3382425, 7837278, 12444604, 13048960, 3347634, 23932470, 2963998, 5330791, 3019432, 7616713, 342304, 2851033, 5521705, 40607484, -719272, 11785760, 10158927, 7506537, 4495748, 6559094, 10795125, 9090878, 8242965, 6449632, -3063273, -29893840, 2606211, 3670163, 1390928, 14147627, 7731542, 3985319, 35533428, 8976659, 6904737, -8753972, 7164408, 4475884, 6382552, 3797491, 9701482, -33865916, 2179176, 13492214, -4549696, 3433070, 8345077, 38423972, 3949020, 3711418, 4850442, 5787404, 9352673, -8232212, 9799844, 1472899, 16093437, 32318574, 4180023, 1767601, 15437500, 2050489, -9381097, 7658613, 11454849, 46270192, 10544159, 10718648, 2140610, 583643, 22310434, -3146216, 1073868, 6480430, 8892418, 3460375, 6161514, -15902328, -1592801, -4387462, 13462236, 7232021, 2120974, 4717599, 2572655, 7437399, 6791002, 24572224, 12322075, 15907517, 6623657, 24455842, 27948148, 2403004, 3214491, 1092716, 2719845, 4668008, 32371014, 4343966, 4665389, 5134951, 3408839, 7371385, 11197592, 4205621, 5767398, 4924685, 5289600, -1988586, 6749993, 25672730, 19522896, 22588902, 22604548, 6730406, 6730862, 7475981, 38056676, 14787685, 9574491, 20558248, 7507262, 6957670, 7627713, 2485873, 7466485, 13703065, 5686520, 14629191, 8717797, 10994846, 15889978, 8438362, 4092736, 5256048, -15983424, 15399328, 8730074, 1999691, 7218891, -3504116, 16732351, 591125, 7757545, 4870023, 2137004, 2117169, -1979113, 17845330, 2578554, 3127970, 3930329, -30619162, 621038, 19558748, 5190190, 5033107, 17073166, 6585884, 4305727, 10200419, 972770, 16999164, 4144122, 17267232, 4583868, 17792850, 27109744};
//ap_int<Config_LayerNorm_1::DATA_WIDTH> bias[Config_LayerNorm_1::NUM_CHANNEL] = {-4928062, 6309777, -601905, -3745056, 3643955, 4263400, 4359875, 4326491, 2295979, 422391, 6640027, 685926, -72106, 6690546, -7945487, 9714884, -4024004, 3257322, -3849451, -2408996, -2684713, -3854828, 10308535, 2308222, 7350505, -5809098, 4418860, 5465524, 2790420, 3837316, 9511662, -897678, 2436474, -10063735, 6417619, 4198963, 4857460, 363597, -6252197, 2830366, -4007642, 8187815, 6408501, 5971945, -3470, 199319, 3872811, 20265926, 1199825, -647914, 3160698, -1776430, 613188, 6042645, 300562, -3184167, 14409240, 945269, 3000955, 4384521, -10888367, 16277027, 173888, 1027647, 3699933, 4065505, 53985, 2338925, 3057002, 16809426, 4799106, 8620334, -10199659, 21272488, 411978, 15722083, 3686019, -26355512, 4034177, -15159338, 2827921, 20784648, 13034259, 3982853, -12943671, 14579282, 5250366, 4624907, -3762134, 3610840, 4192202, 6228248, 133151, 3751995, -2010752, -8856000, 3557303, 2475920, 15582407, -2674484, -4204169, 1715361, 6514819, -1166179, 4300390, -9252282, -527377, -7174620, -14918191, 2102932, 31820384, -7074588, 8159129, -2908669, 2739986, 2302970, 7900854, 7833714, 7014455, -15793664, 575170, 736261, 5659924, 3660347, 3743516, -2486675, -6629707, -482706, 3748994, -1545473, -9650093, -5381625, 12093217, 2504334, 1382465, -440706, 7604057, 5205770, -855951, -836632, 5309119, -5117485, 7827016, 7299973, -11003375, -18474088, 65140, -10213712, 4431445, 2432299, 3773408, 5468063, -417336, 3975823, -1172969, -1317836, -13425334, 236196, 5928627, -8908130, 3851130, -6157970, 1666176, 1013260, -2779050, 1273516, 19138334, -1054149, 1773920, 819288, 8138106, 18643262, 6336526, 4188484, 3117941, 3890168, -806688, 2279195, 3530868, 5462691, 3127383, 1598489, 432017, 3433986, -4689379, -796705, 9151590, -139042, 2035596, 8258314, 2603192, 3632657, -13256805, -4346593, 2548908, 4905348, 5727993, 1616771, 3796384, 5351247, 4108391, 17377472, 5947321, 1928987, -12076810, 7838120, 7312476, 6162295, 3748798, 28706, 7537261, 5069532, 1453319, 2109557, 12881376, 17770042, 7343088, 12998387, -292184, -1677815, -1074969, 5568608, -489932, 2873614, -8144647, -564486, -1793410, 3287891, 1591830, -14574337, 3688575, 3109237, 119783, 4882079, 2149139, 1681855, 4937759, 923968, 4030847, 3437317, 13590208, -5565524, 2242623, 1664111, -1990302, -456473, 3615539, 1624808, 1583887, 3599715, 5120485, 4178790, 5725375, -9403357, 594272, -1398655, 5245464, -22161928, 2010713, -5031537, 4426808, 18157806, 1963817, 4541741, -1503654, 18970546, 5957460, -4165597, 497122, 25026568, 839957, 7430542, 3850469, -7753689, 1998415, 4884318, 1221351, 4198728, 16595466, 5344502, 2333153, 145576, 11819296, 2694022, -2576121, 651925, -6560787, 9621, 5866884, -3259177, -2562693, -4355578, 7934884, 3104286, -5961380, 5989102, 3469196, -1401069, 78032, 4093966, 3605696, -950927, 7121098, 8640358, 2055311, 3744380, 3478213, -6299073, 8258962, -829386, -4093900, -4551158, 4240175, -3810073, -346857, 2168994, 5710097, 2786022, 5363295, 7624606, 2706202, -9791748, -1513943, 3542708, 6007365, -3761823, 9498654, 4324852, -8853989, 7796712, -17331476, 134781, 7074385, -678801, 5042413, 4024642, 1566464, 868466, -13962217, 2323105, 4894493, -7086329, 3010804, 5351394, -3993241, 3586374, 7735350, -15578603, 2076106, 4785615, 24307540, 549326, 288792, 5779209, 2181648, 10597003, 3373535, -8901501, 2961694, 15390992, 6050723, -8482383, -1385420, 5869466, 2689945, -192418, 9405320, 5546518, 211327, 4074090, -7663845, 3088288, 2503759, 3662775, 358964, 6303614, -8513670, 4692966, -5604309, 2757037, 3571484, -5744470, 4833371, 6765017, 3973885, 1958244, -1546812, -3287372, 5388518, 1060409, -11316475, -8834692, 3295624, 8351665, -2172474, -3567906, 251598, -14035242, 15858196, 6218434, 4233774, 2813776, 2312009, -16280274, 7112026, -7751013, 3477374, -1570095, 12447960, 17181946, 461836, 4642806, 5211723, 306862, 11053369, 5191160, 1417849, 11507202, 2974183, -1485297, 1472076, -1848500, 3033256, 2822153, 3027950, 3688312, 2297521, 5163350, -8262198, 5576978, -5596304, -3459972, 175483, -7374600, -17739218, 7456542, -1487426, 3609377, 7378249, 3717793, 250407, -1336809, -1798860, 3616708, 7090004, -1287926, 3483723, 7856239, 2240411, -2901441, 3108827, 281093, 192215, 34223288, 3041154, 10186323, 1030911, 3967573, 5734449, 2809095, 4086567, 3027097, 3021729, 5401502, 2620819, -7594670, -1596230, 3426242, 719864, 3360917, -159878, 5214576, 6442743, 9003216, 4011571, 2625672, 19070342, 4801099, 34410140, 1174835, 3647099, -2000501, -4583052, 2788532, 3644327, -1729426, 11381591, 3332241, 1148076, 4777368, 4417279, 2936683, 1955823, 5130832, -3947202, 6625696, -26007, 7606907, 15583641, 3983965, 3804778, 2487036, -717791, -2028572, 7166471, -5641221, 1036487, 5058867, -2935249, 16489092, 7657579, 1719815, 3326745, 3935011, 7713036, -5186749, 3256437, 3786727, 2547313, -11534437, 3293213, 2497456, 3743811, 7035774, 7025424, -1942364, -2093586, 2758032, 2672149, 5666284, -2036492, 4277033, 1902102, -4398130, 1805562, -21623128, 4089645, 7211526, -11547764, -2552353, 1342919, 2131531, -190862, 4328500, 12479799, 147938, -3080180, 3532859, 287956, 1312970, 1953973, 21854684, 5437162, -7332056, 3222743, 4712048, 783768, 5577270, 7180206, 675283, -983048, 26908734, -2306776, 2404211, 3137901, 2831887, 834112, -903697, 52080, 2008064, -49264204, -2944866, 1777848, -12803372, -2960086, -3087695, 1422042, -2899275, 6928405, -133095, 5775321, 259757, 896944, 2875956, -2821406, 411210, 3579758, 7772997, 52131788, 2664726, 5505606, -10148476, 6387185, 2173491, -2076981, -1117041, -10805396, -1428239, 9188158, 4713735, 4560330, -2430921, -2208079, 6181755, -7351837, 2269337, 3915016, 1469598, 613753, -204036, 4942700, 990636, -21941330, 6136922, 2512015, 886158, 2563956, 3879555, 927325, -1378112, 200222, 3998032, 1636710, 6982799, 12899681, 5338122, 4711997, 2735199, -3857274, 817940, 3678661, -6804218, -1925522, 4066374, 14396091, 1075996, 3511780, 4866830, 4487159, -51676, 28387382, 4574343, -2497696, 12290099, 1868178, 2387918, -17710046, 3798190, 2990473, 6418859, 3451284, -559091, 9612069, 380642, 6660908, -3953847, -6993791, 5385011, 3731087, -4877734, 4679436, 10254990, 3463010, -5971283, -20117698, -2270027, 127154, 7288585, 3998590, -9289574, 7637819, 5651263, -661113, 2030404, 3014379, 1336120, 14744973, 8592531, 8312552, 6277502, 2313503, 4842396, 3199399, 4762527, 3031793, 1595177, -2025205, 3482727, -2965751, 1947320, -15947127, 947975, 1753365, 3449085, 5236890, 5107924, 1090933, -15984623, 4338452, 3710035, 758187, 1611647, 2072284, 7144521, 2852194, 1499338, 5051250, 2307770, 6855335, 2325258, -6432140, 1103685, -11509656, -8723308, 918050, 1453687, 1603803, -19908450, -2931390, -1923507, -14036395, 1500384, 2037032, 3679335, 4002308, -255071, -385207, 1535297, -3988309, 3048104, 1354034, 28692540, -1162818, 3307560, 977599, 13595996, -5030310, 3133103, 4181523, 2613798, 10564414, -9591768, 4095778, 1528460, 3203011, 4887729, 4336759, 6192439, -8594397, 16122001, 4205620, 4566814, 12265814, 6817533, -6028363, 2904767, 3057445, -6216589, 905990, 2659242, -2608799, 7538051, -5507182, 3799346, -2906340, 1238772, -3777852, -16175334};

//ap_uint<32> sqrt_table[2][65536] = { SQRT_TABLE };
